solver_type L2R_L2LOSS_SVC_DUAL
nr_class 6
label 1 2 3 4 5 6
nr_feature 560
bias -1
w
-0.02078216478100015 0.03681524501860569 0.02623936265536908 -0.03038829545717451 -0.02769670078546408 -0.03895470770852352 
-0.01020457916524727 0.01097338189466182 0.01804840515659662 -0.002027170474871393 -0.02558651364771957 -0.01738276540665566 
-0.04032145502501722 0.03233129756008531 0.01264481054162875 -0.02255107976509171 -0.02488633271885057 -0.007346450207031603 
-0.08530665171228873 0.03882085505764033 0.01460174388657802 0.001000917240916102 0.003076276784501297 -0.007462793179001228 
-0.04245092634946081 0.03596400894231237 0.01604924591399692 -0.03052243343032475 -0.01663541583478086 0.02837274167621694 
-0.05296307451918002 -0.01365983288768677 0.03815970641115106 -0.003075899265125413 -0.03220851072747247 -0.003915543577665765 
-0.03951166810713695 -0.02189600073701098 0.04351635420901858 -0.02598629662004434 -0.01833981825302678 -0.01245974685428343 
-0.04739779917710732 0.004134300603164666 0.01955427733614756 -0.007638334038570242 0.001317930674182149 -8.461267231181438e-05 
-0.05840423714957892 -0.02276951943856131 0.04887825687500644 -0.05452102239942796 0.01320266929615476 -0.02045823276596319 
-0.01449862672529266 0.04869456600934415 -0.003433602608272979 -0.01503560794806093 -0.01113541333506639 0.02211622332769983 
-0.02811557941783028 0.02454723198103581 0.002614974323537418 0.02348722421845756 -0.01592293066260241 0.03294197905829216 
-0.006371318387913472 -0.06803069405668519 0.07388553701286114 -0.1108305332278003 -0.02961816143681018 0.01990733866873743 
-0.03426024704252007 0.01132377990130778 0.04064020914791763 -0.02261824260077491 -0.04898333876494943 -0.003419743312514564 
-0.04887413216574733 -0.01074928792483278 0.05792115069473063 -0.0611005386633606 -0.04689593829846389 0.008989257644652939 
-0.03611274297759274 -0.01828417484897959 0.05828132702862275 -0.02010081846598666 -0.06186324289290388 -0.00192640412975542 
-0.009818717447310256 0.01523153132337389 0.0168638198793749 -0.001206021704790299 -0.01710957169364616 -0.02209998913518751 
0.04344488695359967 -0.02521172318411208 -0.02384072210056823 -0.03947766837803483 0.08508940816881343 -0.06648599165768083 
0.03423132527236261 -0.001498821950026454 -0.03226383758526698 -0.005946925202067944 -0.009334764571772061 0.02999441508296076 
0.03596846550333221 0.007994449087158292 -0.03764229211504338 -0.03552134939157306 -0.02246694445224872 0.01703343678154477 
0.06014776992701382 -0.01222042452803074 -0.004522769956369251 -0.01899583650221085 -0.04453892458231945 -0.01653284144843877 
-0.02539284590199981 0.01954919100807532 -0.003328526747480436 -0.04941358101843894 0.02031808968571786 0.03798575015414875 
-0.08838543856221398 -0.02134284473390013 0.06452351148168256 -0.05136878497987311 -0.04890050108208593 0.01494714057707726 
-0.04654551922897618 -0.05799899359121188 0.07759968762815153 -0.03494711376765817 -0.05325039734509127 -0.005627472620891357 
0.001470088027542204 0.03494633979742922 -0.0123663761240307 -0.0305308973630886 0.001570671462729174 -0.003760935691978542 
0.01083846772237584 0.02692050738187751 -0.0327604725065186 0.04545494379906968 -0.01360194891662721 -0.02018836679970444 
-0.01948380911498984 0.01495244702665972 -0.0344088019436135 -0.01450178040473148 0.0005349424957580367 0.06207987921985465 
0.008653075778019914 0.002939898795495395 -0.04127613935887745 -0.017617608631569 0.0207590089415201 0.05380881067121246 
0.002601632766178043 -0.04593991280751639 0.04766348670984426 -0.09039830473722879 -0.003337538862571204 -0.01726643618207678 
-0.05379112452950532 -0.02806660874548229 0.005534541393095521 0.01763348099676849 -0.01116932228839197 0.01267438104157542 
-0.09134107730053311 -0.03967162461063924 0.06040157536452412 -0.06431891222562822 -0.006611239212676229 -0.006751635409904244 
-0.06268880849947431 -0.02713014658709589 0.04134699571079128 -0.008057012410194337 -0.007768195318597121 0.00776719976198874 
-0.01790584204677229 -0.0193636102996914 -0.03348555916952225 0.03355782873763329 0.1138297855470755 -0.08807816346261753 
0.002893319207619718 -0.03295585705447765 -0.03635420736050127 -0.01389897062836954 0.1012063986075421 -0.04301391602570852 
-0.05865124158387885 0.01382139498389917 -0.01348042061283018 -0.01220618975368094 0.01094616453849137 -0.001826053756419085 
-0.02596337462130258 -0.0236255794134979 -0.03569943094494576 -0.01987591576562928 -0.02303207355995082 0.0710803392300593 
0.1373083643885374 -0.05523885964360303 -0.036868197108887 -0.03408227185147759 0.01436278686839857 -0.04308269949563922 
0.05681881086502538 -0.04333874844214868 -0.02489986465106329 -0.05362835357349167 0.02109124667234222 -0.0383001957462536 
-0.02343295398334448 -0.06080071002255882 0.02734909938117577 -0.03989773948280624 -0.03440782457351407 0.0210909937637493 
-0.01062358063037937 -0.01579016196049244 -0.03422952817582192 -0.003854538856450143 0.01193102326015901 0.03248641782198167 
-0.04827049846488401 0.0553905865309192 -0.04038624393409421 0.001921656702920745 0.03040739263721341 -0.05555351313041925 
-0.02458899543573636 0.01759744021537084 -0.04395010940044314 0.03556550117198756 0.03327247940355446 -0.09276508558417648 
-0.06994013159653932 -0.02966179577963226 0.0246200432700986 0.007870957296889983 -6.96608755500466e-05 -0.03256859863877339 
-0.06914068640641018 0.03031929258158139 -0.04950784123809341 0.02796991773641794 -0.005251147770779046 0.04200974401301032 
-0.07981635687170768 -0.04711111946551935 0.02027673466060227 0.01447595407294634 -0.0288002069363071 -0.02308653666560457 
-0.0255767835875353 -0.024668566328935 -0.005849054968313729 0.003499373640361995 -0.03071665701928886 -0.05416958064568236 
-0.03843584561652399 -0.04756762375536915 -0.006834371480604499 -0.02636867879508005 0.006980449348904749 0.09360256282055732 
-0.05024986784828488 -0.01714485461255397 -0.03019117743749127 0.01629843674892684 0.06169927449213922 0.007378730447269767 
0.02587734973084665 -0.003288202178086065 -0.06234682826029639 0.01151720387698081 0.09986275550028308 -0.08914728917687958 
-0.05241609374229946 0.050801113385389 -0.005089113505225768 0.01228033988595759 -0.02818187748793367 0.0005369352463418654 
-0.06198816561446985 0.03963851935319197 0.01661462309011391 -0.01382443979489634 -0.04605819297056671 -0.001567526444008077 
-0.04894054120152372 0.0252652794192563 -0.02087257236994039 -0.001630761200799342 -0.02946008443242202 0.05298294931848756 
-0.045207908419559 0.000946220677898839 -0.0445855549306606 0.01820797656285551 0.002310000430792085 0.01569408607931539 
0.02843723003728639 -0.05842167236834486 -0.01620091152954206 -0.004153432093478288 -0.002925577700507107 -0.01303134936735099 
0.06163872277519799 -0.03528997926067046 -0.03291095373808051 0.01240420203008203 -0.06293302970162214 0.001579718236012666 
0.06786081964238186 -0.000703525802734485 -0.03264125288185479 0.009141527847864079 -0.02943237496578334 -0.01933419905335586 
-0.006794213708256129 -0.03766384031259826 -0.03175708747645117 0.007090414125359918 0.03272196826539033 -0.02481616121030292 
-0.04239224196579632 -0.03322545478408353 0.01128214233976732 0.05831605838815843 -0.02774791971466239 -0.04519740955612159 
-0.05454473537464774 -0.01424624834809045 -0.01324129725488544 0.01245976603797269 -0.02504132748649458 0.005437726019723698 
-0.04421267396960302 0.03080535654303718 -0.0260680048860807 0.02214877234347288 -0.03172594505924475 0.01616783180010811 
-0.06466553250785102 -0.01833523424244469 0.02342950489149574 0.02729697357495987 -0.07553910225440877 -0.01937733125243759 
-0.09419726849641484 0.01987759703084493 0.005562148538013667 -0.003116588084570248 -0.05917814577006816 0.008392725620544715 
-0.002683899244205409 -0.007075057308514311 0.01336517015968233 -0.01208528242858183 -0.02763251275740414 0.03657407730075566 
0.009803154236180098 -0.01462610585660928 -0.02030410729271687 0.02433841395278429 -0.01320512104079317 0.0228780717248702 
0.02766214982595006 -0.02034466177354373 -0.02222971611920092 0.02956425823207164 -0.03026014160892293 -0.02331168619979108 
0.01865595935820483 0.01699512920965454 -0.01375863778320689 -0.005488966238793555 0.0190197868757392 -0.02887081812432856 
0.01186707046214856 0.0125120826164313 0.005128987892445596 -0.003274955429032716 -0.02666902146849539 -0.0310851264523398 
-0.02934920220155949 0.02962815362134802 -0.01233255091316783 0.007497025345149217 -0.02080244505117068 -0.009455190769541086 
-0.05946935487250799 0.02282310585565296 -0.02482140791960375 0.05075258456355189 -0.04382701346232253 0.02858430609530645 
-0.06851742636342976 -0.01798926212064312 -0.002688085868515687 0.003067905376861157 0.002862366003042971 0.007366839528484671 
-0.02629647579252364 0.02854823262651183 -0.008934935712590441 0.02077934862153925 0.001553245831478844 0.007355733029714525 
-0.06951155795880724 0.01199520320360918 0.01723203896620002 -0.01831108294465336 0.01407521135088878 -0.03827321987407922 
-0.07101616701189005 0.01622572378932929 -0.00662889260517558 0.01348660187914202 0.05453549562412031 -0.008265272949344864 
-0.04588978329671192 -0.02418210351222055 -0.02750422146334128 0.05519686014311608 0.08035334623398263 -0.01313901363260098 
-0.04738412330851415 -0.01699882428344542 0.02386385437545161 0.001166144866536256 -0.008806427872050198 -0.02464684401297886 
-0.04222677987571424 0.03901326874557 0.003283403248405004 0.01308053420869733 -0.006980963654480339 -0.01441429865516091 
-0.02319285912384544 0.02118487452437841 -0.01310796684485206 0.01002396303581182 -0.03562983909008413 0.01936264530385551 
-0.03247357961351128 -0.006412866865396964 0.02922189556384277 -0.04396721142508397 -0.0470138435193432 -0.005106973790213882 
-0.03415935223410368 0.05072985348578431 -0.01362027652661263 -0.004620250318857933 0.003994365902811912 0.009825366277941887 
-0.04515106271673507 0.01254296873182726 0.005142443388392775 0.01281182188848081 -0.002452669699803951 0.0009945690248242328 
-0.0009854879265143038 -0.03555616708903955 -0.01686877069916959 0.04260691379046423 0.0179142381155113 0.01881029518603426 
0.06925052215019234 -0.04805669462005872 -0.02297924415451406 0.007299315588806233 -0.005807273310165266 -0.01248099157209256 
-0.01469009527782116 -0.06483639595807199 0.01390096996946797 -0.002233155453576813 0.03817890310862305 0.00148509981664131 
-0.008851241747303855 -0.04511392474103757 0.0287695159104375 -0.03681603054130207 0.001310036899158117 -0.02701703299812226 
-0.03097036264984301 -0.0001645692590013987 -0.01680856098605799 0.02054380138790495 -0.03843210295678271 0.0408316711167038 
-0.03556747899195617 -0.02819576137665506 -0.005765179834982355 -0.005455889772965608 -0.05352383635686673 0.05087872907325923 
-0.02437940114960389 0.01913021053149139 -0.01387814241717905 0.008369164321229153 -0.01761466364038956 0.0278399502473032 
-0.02936305500237564 -0.0002490883342244904 -0.01621471920970144 0.01492102784654838 -0.01433315944242638 0.02871297411662055 
-0.02647286121076566 -0.001825294563209727 -0.03653646816357603 0.03450843974117912 0.003960732378343917 0.02142493568760353 
-0.02106326723247893 -0.07038322344027872 0.008442599744131902 0.03392673519044742 -0.01448645046121407 -0.01360820209961715 
-0.04717667023800277 -0.03404429993903837 0.01294692220959062 0.01776885172487524 -0.01831727838660311 0.03160293119330745 
-0.02380515362362122 -0.04550592196209256 0.01364405861974645 0.03323308118856282 -0.002201616844935292 0.004202772747644625 
-0.03956731983541258 0.008962291778097304 -0.007430204500795422 0.01984121654579679 5.958807482336271e-05 -0.0008564680366244013 
-0.09276690221733327 0.04645200161523229 0.009679010344926247 -0.01461583666562662 -0.04705525232508263 -0.0832573672568955 
-0.05648416519065595 0.02324990135302089 -0.02715296609285302 0.007420897622939943 -0.001421628054577346 0.07220740533496828 
-0.07381149496696163 -0.04784419365723171 0.02304493478397652 -0.003903902766191231 -0.01236236270534537 -0.007126932886057827 
0.0449217754050346 -0.007131135025341143 -0.01886533611424324 0.02082808467768065 -0.05465853992340595 -0.07643949660312926 
-0.0161176817875096 -0.01485748373926401 -0.004769471574187474 -0.04202883064619069 -0.01189695880525204 0.01547230456148362 
-0.05934196899959321 -0.02218042811959739 0.01276833663124801 -0.04292559668740963 0.01029804831916721 0.05576174750449413 
-0.06556854095771165 -0.03680063357860158 -0.003357892345167748 -0.04411822934003862 0.04689881036023697 0.0274204680726099 
0.02267014628308562 -0.02992862238830048 -0.03254299697591558 -0.005903091813123103 -0.05708715643813616 0.02867559325467555 
0.01292011639191897 -0.04888139343164966 -0.02875779600511448 0.01224039375376078 -0.01604052856176783 0.0505932884559998 
-0.01514541146773853 -0.02642649007524627 -0.004178284107572452 -0.009673593291008285 -0.00487563337065866 0.01904924325193155 
-0.02241678320099973 -0.02717632103105949 -0.004936212388850292 -0.02990946000668228 0.03545911309501854 0.01667790585048923 
0.01434441679561204 -0.02200777171048352 -0.02214719838300045 0.00301924829482589 0.007637584092031639 -0.0005320249825001288 
-0.004011772567415095 0.1036049980979946 -0.0560867116334484 0.0006476478639049524 -0.01336317914719326 -0.1015907009496032 
-0.01666932409774809 -0.05993715662215959 0.007281684577247169 -0.0392230692276136 0.03575789881822881 -0.001227155825188522 
-0.01892479157718064 -0.06083393398493065 0.02013534772178512 -0.02558281107768525 -0.0001618954884495062 0.001389597774721594 
0.0413235695802246 -0.07679650242944806 -0.01829072818895027 0.06972283606250262 0.02526580188226578 -0.02953632870122382 
-0.04929871052699373 -0.05656886740385294 0.02121553463749997 0.04061079664522405 -0.04134245320312436 -0.05430006623926837 
-0.03210912126245938 -0.01054436563188413 -0.02916519507880271 0.02877574614491819 0.02097855990060672 0.05811820107658938 
-0.04469039648346853 -0.005226270012193112 0.001575779165654357 -0.01077694096908847 -0.02730676498383336 0.0490371853890502 
-0.01987197056268631 -0.07110332120039982 0.002599213126657732 -0.05996889515120375 0.04848286429957947 -0.06433841396659885 
-0.04661647699860913 0.05437621985639187 -0.01520856193313604 -0.002793906075947366 -0.03459459132570701 -0.02960088762580355 
-0.04495805919651285 -0.02277034270155481 0.03420477507858111 -0.03697401995181599 -0.0429546332131529 0.01664326157747524 
-0.02631196913665975 -0.03910840969082657 0.03356372790069905 -0.07067106033071008 -0.05741183656699714 0.04142313669596667 
0.04954270680956476 -0.07541542167135248 -0.01685181653907849 -0.02974516498350862 -0.006389600055000041 0.01194787052067286 
0.0538638819977196 -0.03569695054296909 -0.02259071236988276 -0.01414204007500622 -0.021338801138362 0.02340128333124433 
-0.07551959128452838 -0.005671503712901786 -0.04696938868487441 -0.01526172416332705 0.0369316385465808 0.05027335220388245 
-0.07216147371421536 -0.01135152297734732 -0.0005064755198195769 -0.04346364644608166 0.02384130875991572 0.03862181500090831 
-0.04909771849553332 0.05199007451753672 -0.0339359333078045 -0.009645944015157587 0.01572106628032642 -0.008265253673858376 
-0.009644660661653976 -0.02988074047498073 -0.01712088932493227 -0.008158950185111981 -0.04765435635131732 -0.04656584511715091 
-0.06883330558044197 -0.001376290829123527 -0.03208649243000372 0.008945140190223371 -0.03625107495424907 0.05395033158771394 
-0.06221712872102043 -0.07383570370632807 0.03051552746836678 -0.03069823875110039 -0.04197581062149425 -0.01209738946769495 
0.07044638680814611 -0.06344083237061425 -0.01403616056305991 0.01470288793108097 -0.0220543750399034 -0.01912829291778129 
-0.04205074832787178 -0.05363668711993295 -0.01631083398648427 0.09082986569877619 -0.03968016952131674 -0.06516903801087072 
0.03148831117830971 -0.03068030145159144 -0.01584768261711726 0.01237230682690916 0.003243336816338877 -0.03716658548249316 
-0.04856080519051968 0.01569953377591008 -0.01946728333424279 0.002407734353966099 0.02732527154240134 -0.009181467179698404 
-0.03758966180907998 -0.02049938834378475 -0.02562266416259047 0.03409076353217721 0.04107284969806704 -0.06065570687132937 
0.04549326482094578 -0.006833884350224036 -0.02016707091630081 -0.005405787526257258 -0.07015769792221091 -0.01538212813539485 
0.01274385357130347 0.004199222788363269 -0.01702827523691813 0.009045675620390317 -0.05414239648090762 0.005409072757808938 
0.03601579551820383 -0.03861660372746076 0.008900682461500355 -0.02997642233880037 -0.0414856125647635 0.02359045251952191 
0.04276460728505686 -0.003449194566350644 -0.02421920694288201 0.008774745174719071 -0.03496539517475179 0.0671912700050695 
0.04070835233404367 -0.02140959391940279 -0.02019269461873235 -0.02114324654293383 -0.04363929900658391 0.0756956308741483 
-0.0189395620896843 -0.001800584572980474 0.01686438127535301 -0.0383767191266673 -0.01918567895807885 0.005102601147221546 
-0.008080676932611611 -0.02543871259471736 0.01756841021205252 -0.0612999305193256 0.01254331385825435 -0.006352570815962387 
0.03924056107174199 -0.03798977988428787 -0.01291351270906489 -0.02942856750963044 0.03322093057377522 -0.08910639264036102 
-0.04362506961841752 0.01605991248415931 -0.05431779354220956 -0.03382281667610435 0.114822929105538 -0.07591586679108395 
-0.03867564214822185 0.008820156114883425 0.002900108405232181 -0.01575220299649302 -0.04319099773892627 0.02545852817116767 
-0.05175109041011519 0.01326539007059566 0.01656537243761194 -0.03227584666877598 -0.02987588244982093 0.02186204919226839 
0.02065060956905931 -0.01851091666357209 -0.01882657362759224 -0.008362250052078272 -0.003270741097947977 0.03544585668368318 
-0.06246716158839604 -0.00350457919410128 -0.007035974702377477 0.03100287049601739 -0.0428050753940815 -0.05806457332433237 
0.01726748139567489 -0.03074811831894826 0.004028405495610292 -0.006539599963045673 -0.02147903307308238 0.02172194466679959 
-0.01498302836579159 -0.04093011126480343 0.00693364426088109 -0.03454122956598295 -0.07888280132532388 0.005837122801087413 
-0.02050757818012692 0.001517238867817996 -0.03758287407123427 -0.02337386524803357 -0.0301300862220647 -0.07254353044606737 
-0.02892446459890123 -0.02585874062857588 -0.04005839550580893 -0.0128895099810228 0.08718974041357044 0.004754246528750981 
-0.03207649625633526 -0.02475715418313848 -0.04270875968318975 0.01993007661892255 0.06736851323285481 0.02959173683677049 
0.0008633663677234515 -0.05140319884749636 0.0002603567424941927 -0.02414719539985626 0.02602167718208545 0.01507045020661199 
0.0219419102830517 -0.02465083356202688 -0.02674018913221808 0.01369028915073043 0.04165258684332813 0.02866899515746558 
0.02486532308247948 -0.05948592212177471 -0.008722163780009007 -0.05230385076499299 0.03199200822038181 0.005377195644874076 
-0.004285438771477836 -0.106580253018148 0.04864051652330507 -0.03818275356429288 0.0107641421740549 -0.05276314178152217 
-0.04962548215012055 -0.003479119894848843 0.02877111469426209 -0.06888570694468275 0.002551587499408437 -0.03603460155619328 
-0.002972219096952661 0.04980899104572242 -0.04491619269044511 -0.01564997504141298 -0.008445399547128163 -0.03371177986257054 
0.01478054430067106 0.03504094316535762 0.004023480139701688 0.007977186272193286 -0.005354760260069471 -0.06647332463914622 
-0.0337774382171697 -0.05768667755867633 0.05433933066766709 -0.03450652438318447 -0.004343382280443605 -0.06541022621629503 
0.01180074986760012 -0.02557719040875722 0.008545733413009475 -0.01314364843332759 0.0006808861914187915 -0.0186952092667849 
0.02229157872822013 -0.03024418349750812 -0.004140477658032502 -0.01912931976154844 0.01191004680010538 0.02968894574444616 
-0.06039601531638543 0.02358079998069903 -0.03896492748651236 0.08414765322799976 -0.0713622971875527 0.03455428109514289 
-0.04554339325689438 -0.04144244548726119 0.01606920153005357 -0.03380913163193688 -0.01782948260435983 0.03543001696454098 
-0.07483973750505628 0.01430732439992976 0.01295107606873229 -0.03341083430382719 -0.00424661599143966 0.007759395599151728 
-0.05407030429705905 0.00119877934580289 -0.03329894242394894 -0.0001164545107174527 0.01438003258633603 0.01866690174181797 
0.02323358501210441 0.02433962852218664 -0.01552761390982314 -0.04729665264564947 -0.05644579161906839 0.02792056009137725 
-0.03645921100820836 -0.007881589634457075 0.02257196558764951 -0.03299696037196219 -0.06271053155260474 0.05726502445558243 
-0.02870106459196659 -0.05740524772300377 0.01109171144650856 -0.01594193338002566 -0.008026333262967285 -0.01530108379485593 
-0.02712275088379771 -0.0526226392241179 0.02223924778076498 -0.02024077352086443 0.01682076697376135 0.01984034926155392 
0.003213344767001372 -0.05983960192873287 -0.02545660269786637 -0.02204092400676682 0.04806525891797141 0.04603135160684403 
-0.02218643141574594 -0.09809651772805898 0.04727195043943469 -0.05044819407300977 -0.02145789370042812 -0.002585392505670701 
0.005434676117531009 0.01740971602998423 -0.01609527579200905 -0.04840124949227687 0.0122926949386792 -0.004464869092380966 
0.08654361945005012 0.05156176635022475 -0.04584690365054669 -0.06097752319760218 0.002935129496037499 -0.04288796526095134 
0.07493681180457955 -0.06317760211182077 -0.02238063926464729 0.003981921400384641 0.007069205720373793 -0.02706597458813006 
0.007588729602079443 -0.0250226117484772 -0.008900601255196809 -0.04092826544086584 -0.0330465807874062 0.08048355686231705 
-0.01320791742461951 -0.01274937391137419 -0.007371647533228016 -0.04674697702687504 -0.02634781901595636 0.01547545269921602 
0.003030285828205599 -0.03257406744745838 -0.01563517730826661 -0.004468128191583582 0.0112702254090356 -0.002769197639499698 
-0.02587658471139197 0.0007377503539362251 -0.007603365193106897 0.0313468820924344 0.03140066229391279 0.01067160420060459 
-0.03412290184623296 -0.04819270656145953 0.03603552255736493 -0.06266005086656712 -0.0214076419321069 -0.002113373095469565 
-0.02659890552843846 -0.04419684534239509 0.03285211827680345 -0.02582890021923989 0.001112601826331499 -0.0427744912601649 
0.05457160681047978 -0.02075170752896851 -0.02143549408810225 -0.009669760016982769 0.03957169341596241 -0.05557393318945612 
0.01415612290465263 -0.01712862737553686 -0.04919381142503174 -0.02972782450613566 0.02302428059660104 0.0410086479225916 
-0.03066162864759846 -0.03458565655264278 0.02091221975454025 0.0026419367190181 -0.0416120112625736 0.01529835707702673 
-0.0175210240603119 -0.02580573949234649 0.01640075686606875 -0.0213276352329316 -0.02466317607858657 -0.01115752320857108 
0.002454944400827914 -0.009011115120503831 -0.01103509675114748 0.02087849786564561 -0.01290192026692869 -0.01198615092877035 
0.01220448591327662 -0.03849996825750497 -0.02956834279281659 -0.01775148780849252 0.06682021802381988 -0.03287550325344565 
0.01730615678458718 -0.110210855768653 0.07162103002983916 -0.06294636052213794 -0.04422683132813814 -0.06158872182968255 
0.02937416524659937 -0.02656022830631317 -0.01641614743124102 -0.02541711186772631 0.02637418075849236 -0.02829737216011513 
0.008122750745868466 0.02770444996229815 -0.05431006425648627 -0.05437825673352732 0.09032556066482299 -0.03931566124762877 
-0.01506089791461119 0.01712260796545059 -0.04300309894878843 0.01580916821533565 0.0256301241573686 0.02248508160916954 
-0.04766475915820184 0.01814907845731069 0.0007000140210255395 -0.05474439590233705 -0.06733973262038344 0.04242800493268985 
0.01892401839520831 -0.005835435233341324 -0.01173774994170058 0.01226120758107568 -0.008181134083938259 -0.01011439870898921 
0.08365956960053593 -0.008621899737921204 -0.03221806813981922 -0.007756932555659938 -0.00211847467461753 -0.00422542102248263 
0.04782323097323498 0.02048101212123356 -0.003923415960541374 -0.01891422074431474 0.01920056329944694 -0.009198147466193927 
-0.03364289462634378 -0.06039807783360273 0.01826626650052288 -0.03246731050528068 -0.01906270243936487 0.01989667497204611 
-0.04995094457998789 0.02890044549250284 0.007282417325771125 0.01996813372123674 -0.04543722755973605 0.02814941038937454 
-0.02139139465284804 0.01351387712592257 -0.04395568451455546 0.002647302747300855 0.0449781355122388 0.02299272402402277 
0.04140645696162572 0.02426709310823546 -0.04490245903338083 -0.04995131313392862 0.0194679480812899 0.01038837999732469 
-0.04554900684663004 0.01949046269925881 0.01057858639963916 -0.06312045844908039 0.0009326409270720716 -0.07649376920190878 
-0.02725843899935065 -0.01700494739256998 0.03319710129938412 -0.07164353051410693 -0.01944568410707171 -0.01697576767396797 
0.02904857193491946 -0.0518467735150477 -0.02305936956935528 0.03855425903038426 0.01978367319548964 -0.01502867644816535 
0.07870669700264223 -0.04831817376670858 -0.01785327423926289 -0.03342809387716296 0.006055169887918473 0.003033214608712247 
-0.008377360715614297 -0.05528921215001512 0.01716878412907901 -0.03110736074014435 -0.01397499469094776 -0.002790393025079404 
-0.007377701795767873 -0.03890806987913936 0.004692352733579148 -0.02253913626150657 -0.001399727058084799 -0.01126865375109436 
-0.008326502012434039 0.05411488321894801 -0.03811558562094441 -0.04552629599139599 0.01802480662884645 -0.0002129518475659841 
0.01441025755466512 -0.01586911620615872 0.03875299001685317 -0.06836855865134035 -0.02054991929493552 0.01365542997837033 
-0.08706110255779191 0.04428300085457074 0.01217967435011721 -0.05730651118310701 -0.01805860511559729 0.06059326760634682 
-0.05153495943398077 0.02289194483205443 -0.004181795763008504 -0.0187172436103412 0.0006206340938320811 0.04108117721171779 
0.09878949021211697 -0.02538816769125687 -0.02636486852636256 -0.007350062864948412 -0.0104290773209201 0.001267509224014223 
0.04426213122011713 -0.04418104662475279 -0.02225114272670686 0.04369474698781663 -0.03584794045188474 -0.05138873573860937 
-0.01440981182972661 -0.05258088883271496 0.009496250356284062 -0.02500367877880744 -0.0250431506235804 -0.03517422319867696 
-0.0284043965864576 0.01679156686063805 -0.01843940552978228 -0.007339385913305125 -0.01033121363508883 0.03430745463740433 
0.02154450809343764 0.02954148629779698 -0.03426964911222099 -0.003815302993925294 0.0054787844180782 -0.003966366561735497 
0.1105284346755471 -0.006285264856341159 -0.01904883923964694 -0.06208485129973407 0.0215773842524727 -0.03444040056056423 
-0.002027702597589296 0.003338563141698585 0.04566673583447872 -0.08259375405484701 -0.03557496603487991 -0.0870463084183556 
0.03184448885750209 -0.003490630609342122 0.03722909493448024 -0.05773484696472513 -0.01838752266242407 -0.009991598161321084 
0.01722469546306835 -0.05431027543267525 -0.02036805717384286 0.09794962471594199 -0.01922001656108479 -0.01249714466462693 
0.02387807272015744 -0.02195900717872927 -0.009033709412047697 0.002342831690095165 -0.00577629460267825 -0.00282760361961755 
0.004740839102564154 -0.05618114391986716 0.002448298809161142 0.0194336238607288 -0.0344610071790902 -0.02032077911161304 
-0.038312115750724 0.002203820956806278 -0.01111370080959018 -0.04059720423452431 -0.02820081409882647 0.02721615672438381 
-0.005869287672319372 0.01405258012311624 -0.04386449685947141 -0.0503161086203992 -0.01130814445163737 0.01996568384915896 
-0.02323505760748293 0.009845259778281233 -0.02784786354774796 0.03837819741945013 0.02108585446828553 -0.04360077983076413 
-0.05213615680416919 -0.01514013840832713 0.03108183121616984 -0.02100722569859197 -0.03976876218569097 -0.07433243955741592 
-0.05745500479574937 -0.05155370705375104 0.008545383072059688 0.01664896360362349 -0.02387513860157628 -0.01949974547824188 
-0.01452239373226454 0.01950905198745404 -0.04227872232041299 0.02278656811387059 0.000237283164399657 -0.001496694283608708 
-0.04559222133874067 -0.01718564284308129 0.0157411136972043 0.01489140130652775 0.004177867805389522 -0.01461565736606851 
0.006520426252847365 -0.01704260867403419 -0.02265352008201106 -0.03000349035808476 -0.005414495301106996 -0.01303045775625515 
0.01423130792339649 -0.0256321488404279 -0.03475569773455815 -0.03415990669253373 0.07938728198896396 0.06680744109565925 
0.06181079504047931 -0.01051794071392577 -0.01979607136240455 -0.05808652281430902 0.01755740648749416 0.003623398374309727 
-0.04663468962952391 0.1026944180101421 -0.02008041441136093 -0.0325956885124206 -0.01247208603469871 -0.002679881711285809 
-0.0278516169950573 0.02150240960269353 0.02129686494353287 -0.004494310988176567 -0.04890537967266868 -0.008377752612211456 
-0.06584362830372861 0.02360718697385287 0.02533910590326649 -0.03047118156766007 -0.03582901512062917 0.04468109112157708 
-0.03094067012641277 0.02405254291510832 -0.04115296259850492 0.07134296240251044 -0.03274246962217015 0.08134261125450655 
-0.02182047908686718 0.006380043382658609 -0.03926844038691844 0.03604775422166299 -0.02123687084342136 0.007024198599249809 
-0.03062993877772282 -0.0189813385557377 -0.04946137376784433 0.07991790468243831 -0.02564501423668014 -0.02057069065458466 
-0.0368729097455238 0.03007303948094156 -0.04374718116095011 -0.001191175092914288 0.009263313169032939 0.009483459606079462 
0.04947370107313766 -0.009504284752203884 -0.02690920857032672 -0.005438728560440985 -0.002394700431238092 -0.01793621486692256 
0.06677156650375445 -0.02746350978451595 -0.0205759029437282 -0.001304369595025118 0.04165852925828745 -0.1130287018393769 
-0.03478412532180532 0.09617199412880038 -0.04774423962201384 -0.03518695222188247 0.03630035800298743 -0.09099002029723045 
-0.06753996035562022 -0.008691591842516286 0.03375712521741928 -0.02271257021052665 -0.05223116815339126 -0.07586854969717666 
-0.04491660790343049 0.06072774724653402 -0.04403564095769858 0.02509189445400356 -0.03101341997772454 -0.006776633929957425 
-0.05523274864903431 -0.001937476142746634 -0.005829651450835666 0.07158667281977434 -0.03795245082891861 -0.01407345057117255 
-0.04271769082556436 0.04400984137036702 -0.02873389807863563 -0.00877962404348853 -0.01282551157137141 -0.005637807034942547 
-0.02101113727321854 -0.003195781238052438 -0.002487942768002094 -0.005069525260436298 -0.02310241161095008 -0.02416179431671397 
0.03769621067441797 0.009963015423584741 -0.0165440962970627 -0.03679814350651522 0.009693803741587903 0.01806983453834549 
0.03556723624119706 0.02674222068629528 -0.06310128337346635 -0.03953564075424724 -0.03371482721321768 0.01961008644408592 
0.06246862566142342 0.0009722190002739067 -0.04496148126774181 0.009133263766481228 -0.03703939315752321 0.004804049852352774 
-0.02075299156424138 -0.06676531270675877 0.01811334259960331 -0.03359599995819854 -0.05349836281279374 -0.06511941354986878 
0.01934456490351831 -0.02429885884278452 -0.06861260296284537 0.05323834786847463 -0.02785211207313328 -0.02689949111621971 
0.01637300901634758 0.009761859334436001 -0.03146744039478554 -0.001260171124223954 -0.02334484138886824 -0.009313746859214395 
-0.02501129891974806 0.005944812280541242 -0.02245688762922842 0.01114948621288738 -0.02330632430165677 -0.02407738506825322 
-0.02429871701133502 0.06226403538173983 -0.02616145886517776 -0.03259623169168232 -0.02563634687926272 0.009035661854895962 
0.0469605676872552 0.03586602571335655 -0.02713599866228361 -0.03599644103364245 -0.04136059343853388 0.04714884925725992 
0.13418858176966 -0.03386428923584913 -0.04543821595884049 0.007010523346976036 -0.02214338066428803 0.003793479912855344 
0.05268562026285179 0.0152988702598014 -0.06785256471116549 -0.002906849655670721 -0.0293301711123793 0.005298729832923624 
-0.04654139144035964 -0.02417102520270168 -0.01026530301858317 -0.01302321511032293 -0.05580769406272167 -0.02977599554803276 
-0.08593449829002651 0.02608855693771326 -0.01385935817460247 -0.0102260050344463 0.04672007140558455 -0.06179822577814297 
-0.06212506586601155 0.01223565526528488 -0.03579479251393 0.0727815529134085 -0.03176514799530312 -0.02168378059902596 
-0.07348749863959535 0.00837932715629898 0.01458230195626821 0.0271767650145015 -0.05080957136624472 -0.01887319635531061 
-0.01199369629899192 0.07112098553890277 0.001704982175021771 -0.03427963169808449 -0.1092341028816188 0.01198136728661302 
-0.03401432183844615 -0.06984894644790583 -0.04785032737953514 -0.03274453897854816 0.02950082241720218 0.02143451864334157 
-0.005026902273920907 -0.0259882034440615 -0.07620339703635351 -0.04951148009844163 0.01821339635218576 0.08758955549551554 
-0.03419241146315433 0.03814650806481061 -0.03187764489488724 -0.03714733112358207 -0.04883232905355438 0.02667478078760561 
-0.02040674554361598 -0.05422778837671968 0.05606229958321341 -0.1144410583125987 -0.04538477714025487 -0.04627253697539037 
-0.00953337197625153 -0.007447308468052889 -0.05370020156724135 0.04143368834266523 -0.02098742535718584 -0.03812419070169878 
0.008706550125279537 0.01099962770842629 -0.05757489667297078 0.01150628533079556 -0.00482890031298331 -0.02237042281608394 
-0.01376251141807995 0.01020427569416279 0.009021530756355771 -0.03413011194378187 -0.02266199387635181 -0.02410634086641117 
-0.0264716168883326 0.001924094856087342 -0.01042904356943396 -0.04570080815915804 0.01696561291067522 -0.008078193751141225 
0.04056847007609762 -0.01324389667228352 -0.04527183958000907 -0.05314383990299745 0.03109304605843951 -0.03563464185110485 
0.07409131370222312 0.003387896938998697 -0.03461163538362955 -0.03572642426747837 0.01753989126616241 -0.05907548363744283 
-0.00985902709715261 -0.06239448834129881 0.04345449092095525 -0.06307952466567404 -0.06887664720423377 -0.07147384404804988 
-0.01711706793459497 -0.02052311387485806 -0.0006938624681110707 -0.02226335142177795 -0.0661861196276103 -0.03974772991429713 
-0.02002400515584083 0.03237774226896956 -0.07123348507769017 0.02627457996196004 0.00917981775234966 -0.02366832803478204 
-0.05013055641253415 0.02624693005175531 -0.08892023018786688 0.08745875492558178 -0.01143636472625686 -0.05761558707402369 
-0.05499715140556756 -0.05443489254593063 -0.02486387021724986 0.01491276062673419 -0.01853555067724724 -0.04926605903195733 
-0.112832214962491 -0.05539442084467322 0.0393350387050771 -0.04612564849373 0.007944302566892984 -0.05008712332479817 
-0.01694497447611177 -0.02327274554364914 -0.05573311831843437 -0.01895168920006889 -0.03531563419687705 0.04684558056714679 
-0.03289222789066345 -0.02696671199424862 -0.009215369222380239 -0.08296320109022245 0.04389230118875993 -0.03047868235690022 
-0.07968749029459721 -0.06137273189249882 0.06384695004002158 -0.04367457443387728 0.04771678458616069 -0.05713645943821898 
-0.08364092506525793 -0.05632973016755902 0.06714711845066772 -0.07366111140626465 -0.03062379767421531 -0.04575954321439262 
0.01748589383132752 0.01961303235388286 -0.04529647477546903 0.0208173750367504 -0.02580312299894947 -0.04178639778602874 
0.04835608485879445 -0.0767918067083514 -0.04275715842317728 0.00792243452715157 0.01098985384161537 -0.05589351677922444 
-0.03916428302738061 -0.06905777065150584 0.008303911239365646 -0.007707605417008234 0.004161921756611683 -0.03381377914793698 
-0.04858285370956278 -0.09414963933985619 0.0396408426941393 -0.0509029415763553 -0.01835886156169623 -0.04750921230637078 
-0.01463099660711822 0.005550948958030263 -0.03850438459758405 -0.02183770919769456 -0.01070786665090125 0.02546926283427677 
-0.01458925792148206 -0.0690817889088462 -0.04205698299638215 -0.01288752450729748 0.0007881353949155764 0.04804622977690071 
-0.08706005011439683 -0.1016513092797272 0.04137854844645193 -0.04925738732431225 0.02517159934990419 -0.04008465275861171 
-0.08282804646463485 -0.05781430732523415 0.01240701040506559 -0.00496583136519976 -0.00757356590098391 -0.07306726465788059 
-0.003333302369238598 -0.02255946426591059 -0.07222176357646745 0.02880067445361095 -0.02206949408208553 -0.04709883436426265 
-0.05213131420723013 -0.0144470161886715 -0.04279035141693335 0.05669518742009515 -0.03705232036123261 -0.05987305296262618 
-0.03100372020137951 -0.02556785723178538 -0.03020025067163733 0.001766764507895503 0.005237936122764753 -0.0342419767105315 
-0.05509216692306152 0.01986418402766689 -0.01683476415723992 -0.0337950022686361 0.01332835973791007 -0.0524883327611124 
-0.0248380642387535 -0.04422035787412578 -0.01699071858731411 -0.05972701612887688 0.01537391047468651 -0.02759872780457067 
-0.00219341416907949 0.005108557938933462 -0.02349423058129422 -0.02478568878990566 0.00622241701630569 0.03231200855657675 
-0.03698524106127336 -0.0316790000415071 0.020377369497072 -0.02818565067367133 -0.001771524909347138 -0.0158548559841485 
-0.0125240849007735 -0.0414664876021907 0.03119148685674331 -0.04620257478288219 -0.03292345597581376 -0.0631304272795941 
0.02512297938761445 -0.003476175284203727 -0.008324497292339987 0.01839030698337767 -0.01249513857584905 -0.06782867869008487 
0.05348172804453818 -0.04122479716036651 -0.0359361671926921 0.04712818100092814 -0.01353959589732458 -0.0513802259964375 
0.005566014783993358 -0.03525235588870938 -0.02351082003805288 0.03533037468110611 -0.01124308406221642 -0.02091147387277419 
0.02702857883822682 -0.03043181789271502 -0.001696992130554915 -0.04933912805448211 -0.06532417308881798 -0.02897626458747182 
-0.003524986264040786 -0.04217384311847665 -0.05132076979735549 -0.0689751533846297 -0.02437275538628163 0.05847217888935555 
0.01976475961161468 -0.02439400203874029 -0.05195019192939457 -0.05813309526647843 0.0407781692537133 -0.005037506438353634 
-0.08637046718701741 -0.04033074936741383 0.03221934809194123 -0.02294045359470037 0.00854532681133509 -0.05966299537380824 
-0.07642556933225506 -0.06980172674530478 0.05016264652576884 -0.03717816567294925 -0.04794558010278209 -0.08230997925796292 
-0.01161223635952137 -0.01829378859353201 -0.05364832010744159 0.03971192490998151 -0.00356633947003525 -0.04153718895757563 
-0.07241621139101255 -0.02190659241729552 -0.05584467799843242 0.0705318879456972 -0.02890859908008137 -0.07561084794864659 
-0.005495213414562701 -0.05036125597441892 -0.004118733849142379 -0.00700719595970334 -0.04820339220725739 -0.02129992254922283 
0.05882350170743556 0.01506620964004502 -0.04212272831666166 -0.03480030504319949 -0.03846564752699812 -0.04387403566211326 
0.03080411665060918 -0.002546191950198624 -0.02192386223901624 -0.01771286687528616 -0.02268175052057524 -0.00578558684098832 
-0.01591666775855984 0.0120283984370656 -0.04304199899911303 -0.03596687012383276 0.009969148293373786 0.07180174347818018 
-0.06764092826910013 0.08007284724539779 -0.01422180320666994 0.004134880217842482 -0.0656272762530772 0.01256948570936568 
-0.09185834382552989 -0.01620414674674669 0.0556647312924245 -0.03768618363800157 -0.07857075740615796 -0.01411346231344771 
-0.0373491515998957 0.04246537618932925 -0.02322815929509207 0.05104387825071321 -0.05154891640149978 0.03009227695498507 
-0.03403151788994239 0.0261898959196206 0.002763256897564297 0.02426309759219663 -0.04269123390571017 0.01012743886632617 
-0.05576694565500881 0.06103904817644464 -0.0008576217556638115 -0.01658180687571591 -0.04100040745896659 -0.05873957245253863 
0.01513094040164686 0.0809773128769404 -0.04262576470207843 -0.02929390688481072 -0.01144888693177775 -0.05610532756846851 
-0.01643990726104658 0.1407864438551812 -0.04105155384263211 -0.04766576886869395 -0.007132249549278257 -0.05312847631235259 
-0.004526427503613351 0.02945971210353312 -0.01280206838242929 -0.01960458339738808 -0.03853631410591915 -0.02878154232808327 
-0.00997385167070799 0.07044381229694462 -0.02098283890442021 -0.004883934232577864 -0.05320524666847835 -0.0001219723521833784 
-0.04921838221384215 -0.02915780217969528 0.03212338500029551 0.002461141271587591 -0.0601285790235907 -0.03076708504431765 
-0.04767324096822726 -0.02439255617820418 -0.03580730557613706 0.0411298354310712 0.01436762075019868 0.02225588892574938 
-0.07442830077389721 -0.05456193343654235 -0.02322976917987157 0.07817745362489313 -0.007848872072160423 0.01860395917392852 
-0.03169036959067224 -0.02387048764111285 -0.01739469074205148 0.04839497633262498 -0.08778904233261928 -0.06100938125750409 
0.00524004277967595 0.0431768863415497 -0.02024396085732657 -0.0008906063052542369 -0.05493281788262402 0.005200742194344125 
0.09150352560008294 0.01809285551904666 -0.04542469602123395 -0.009090026512831468 -0.01975089169026163 -0.04105833897331023 
0.07063791565032487 0.005728039847730682 0.005065449314999589 -0.06959490496187029 -0.01159858073076929 -0.0001414754766094625 
0.02220423338611908 -0.005534808466044237 0.01974170958134977 -0.03693816944099187 -0.1061483838739997 -0.01424155416160592 
-0.05843981862695965 -0.00706930170883671 0.01840544832966244 -0.01608824862888178 -0.04466686540693368 -0.05388580072384144 
-0.04881226342749816 0.03449660396224444 -0.01319489856050005 0.03828201732108151 0.005388448195820882 0.007920945633531896 
-0.02903863723786806 0.05061001411843893 -0.01175038997114502 -0.0156170080971437 -0.04499053171049335 0.0204508562042466 
-0.04724602044171532 0.09588331230806679 0.0158065548386847 -0.03578343207961528 -0.09550574526418056 -0.1167974687295068 
0.01996518738862508 0.09979823456651241 -0.03750285319437253 -0.03801184299923591 -0.05009018407874337 -0.001015309449533032 
0.07903422302228037 -0.00422174862307929 -0.0373525899059545 -0.05764145121905432 -0.01628715917771884 0.009636258841865104 
0.0502711542036013 -0.03785358858385152 -0.03691788479578132 -0.004706453135885167 -0.00301685493788828 0.009104353173123695 
-0.00892583450314248 0.00383914164242543 -0.005665989751549076 -0.02001602246600416 -0.0373133654839151 -0.00176107141180993 
-0.05454307003104069 -0.02037895878980607 0.01793388437300435 -0.01922665116469745 -0.0378500374231333 -0.02127931701630701 
-0.03177159734504699 -0.00719506375968932 -0.0335259822006071 0.01638212112989052 -0.01207049778254628 -0.0003423206400323766 
-0.02348128666055552 0.009759897622336353 -0.03346092243782021 0.07911841806167393 -0.09082092197828187 -0.00411557749877797 
-0.03038763946415844 0.04414350837070492 -0.04305637764749456 0.01973474131018349 -0.07613816349447136 -0.04604155710334468 
0.03328555664341956 0.07687568856094172 -0.04731794928920621 -0.01350722737597771 -0.06025476642688375 -0.02442534435413972 
0.06727587332459586 -0.003876441135603606 -0.01882943015061772 -0.03377847889924093 -0.05714571167939148 -0.05433247842158022 
-0.01071045374410783 -0.05684863371950125 -0.01645081777403423 -0.05832540066599528 0.01359953367661861 0.05115626748488773 
0.0275977830080817 -0.0293035623002744 -0.006968343486926494 -0.01921786798046323 -0.02277820421903487 0.03725650164996306 
0.03805140214719795 -0.02022776789469449 0.01974152633541703 -0.05050654044059338 -0.04066992391395389 -0.04101039424456226 
0.04130347027503039 0.02475461564203377 -0.01874058066560163 0.01031606287253496 -0.01623721707722478 -0.06497331378345965 
0.08038344518807161 0.008132815286412231 0.0133007789515722 -0.05967160052475329 -0.02966807906335391 -0.08772270139656545 
0.04997312862167966 -0.008612068140298794 0.01840909854160015 -0.04848846000230234 -0.07156676565192217 -0.05515813694762622 
0.06078107881648472 -0.01875988681106922 -0.003743687881875914 -0.02555688884498978 -0.04146900564659928 0.004196078312798153 
0.01042317623010158 -0.02936843988181217 -0.01474899644207199 -0.03566618477129546 -0.01092864113328243 0.04091256521458595 
-0.03569829807105469 -0.09482874684772878 -0.01796397437672472 -0.06048922928129494 0.07764959965605157 -0.0004349334659821633 
0.03472102007189051 0.00418852985457717 -0.04385053210645429 -0.01685487587127945 -0.03296125758152511 -0.03796907577272773 
-0.04509876304077979 0.03444340162245755 0.01332075664637795 -0.03754788209144115 -0.08208556438942599 -0.05867055117989574 
0.01217392537772092 -0.03044121355323481 -0.008866205548945308 -0.04045655801911377 0.001855999599089112 -0.05977293068667124 
0.04691474269708291 -0.02701621572794993 -0.03219160973561313 0.04497871760520245 -0.0216249560502752 -0.07533928008902768 
-0.02123308817573655 -0.04061019404464121 -0.02645088941264187 0.01312593848702499 -0.05281246864504817 -0.07681839485067868 
0.02938081247214703 -0.008285473602138228 -0.03714097574931226 0.001635644392393908 -0.01545503873603345 0.01276484416644001 
-0.0613675155662242 0.01894774101872904 -0.05009000839378565 0.003336122909052923 -0.004373006738532633 -0.05806086989686977 
-0.01119003533384466 0.09158118570769501 -0.06342951722085617 -0.05199951597679436 0.00847930893396825 -0.002755439738375376 
0.05640047010742998 0.0857879129827933 -0.05726525540894399 -0.008008057917184263 -0.05012967488395467 -0.03147660766733131 
0.02616006534142972 -0.01256379414221964 0.03796075658747015 -0.06695890955115488 -0.07692030689960228 -0.03679642827107384 
0.1208871953790061 -0.01130874066062103 -0.01990756371910436 0.01519496702780347 -0.06625255957775066 -0.07743377469412571 
0.09281086032600983 -0.01826928493271625 0.006489874674976576 -0.04426583804617235 -0.02520177531593343 -0.0954356491936023 
0.02367370596326784 -0.004059435452563383 0.01357733493905673 -0.03084164377106735 -0.03251364179820945 -0.06470087150300685 
0.02280039389583783 0.007002036644928353 -0.006729673091027373 -0.02819472195138876 -0.07468892628031179 -0.01650325586574217 
-0.05749244663546749 -0.009535691942005263 -0.02612312920611579 -0.05151750636094437 -0.01951011687147355 0.07537720478483204 
-0.04551402154208625 0.01136286201004119 -0.05941920835570985 -0.002872194586443916 0.06553488628092427 0.006252330693952007 
-0.004868893349310727 0.0002989985379267229 0.0103334430512895 -0.04025570402028514 -0.07096534665241788 -0.03323819744810613 
-0.0198489930005078 -0.01861850338542088 0.008258260611147311 0.01204818366320423 -0.0609478461971496 -0.04730753138113527 
0.04569868092795654 0.02237165829488909 -0.04530751349139184 0.02166114426047151 -0.02709174067670368 -0.03267579516112161 
0.01669312658571297 0.01402771130762523 -0.03436347521214311 0.03749643322694632 -0.01611501965512867 -0.03555878671841217 
-0.03864749102330062 -0.01266228616850548 -0.01559768535758895 -0.03342983407409365 -0.04574040246299592 -0.0597121180642371 
0.00984403487980692 -0.01239593594592399 -0.005601484449946119 -0.01625023596797885 -0.03431592391085363 -0.04685611345149025 
-0.1588596603601959 -0.082646809234017 -0.07837315084140029 -0.03469474307223441 0.1316887872529803 0.03455225190417065 
0.01476745542916546 0.01829558986996953 -0.1140905662533116 -0.03657098196843284 0.02407691477880851 0.03080975668508948 
0.03449631582378668 0.03915143984046309 -0.02881869498488286 -0.002085473151834089 -0.05536372215364866 -0.0326570967547789 
-0.020098436832965 -0.05295741255445577 0.06017270455285594 -0.02307313760272211 -0.07170536266783861 -0.05913516406363558 
0.04370490667335034 0.01932795432298689 0.01448711985931857 0.003065941273125023 -0.0334891164510743 -0.02822760709032771 
-0.01310555524952477 0.00969232728464562 0.008488261300874638 -0.04531094947657303 0.0005669392758379341 -0.02393345833903941 
-0.0131122074026378 0.0172208156893223 0.01825300874783645 -0.03518389981108341 -0.06148359805394366 -0.02941146397146188 
0.04977971828867153 -0.02558447424046924 0.00307465234354062 -0.02669304939553348 -0.06818614349416122 -0.002590607483269424 
0.03296638788247092 0.004224802808865412 -0.02689535244295714 -0.02272006543203965 -0.04688497596095 0.03324163698371663 
0.007538580372941457 0.03090191589844403 -0.0484312881108624 -0.04018976096912423 0.06127935032175157 -0.07696979003131318 
0.02173507288892285 0.04082263301722663 -0.0003833914121889997 -0.03763254909160644 -0.07892546787793878 0.003728610143939461 
0.005808191393029544 -0.03711017390400042 0.02720263328488473 -0.01338339972381129 -0.05541053395035543 -0.009536852794795599 
0.04283124822136113 -0.02521719535221477 -0.05648968907778218 0.0450886289458611 -0.04072257213112525 -0.02178007939645176 
0.00104063204443492 0.05102881243401345 -0.01364172412361611 -0.004032473195678089 -0.02114407097939882 -0.02109941961568764 
-0.07630896122853584 0.03847641465890259 0.02656526330104553 -0.01616065518926068 -0.06459347041907897 -0.05287040480349944 
-0.02314301026200153 -0.02936036518857921 0.05344648721296493 -0.0410548987251611 -0.07790903542388108 -0.04796507885112224 
0.0008862686432467167 -0.02954477628889396 -0.03272767823672743 -0.02440788728102672 -0.0386822550236497 0.03698262058668023 
0.02591293993900443 -0.02573396121927913 -0.01694127035744657 -0.03709227523327588 -0.0237482987991855 0.04684801359936923 
-0.01532238077811719 -0.002917879433355 0.01505477606590788 -0.03612626953120313 -0.01950414786833489 -0.05003337814848766 
-0.04421887588877198 -0.02695922664196091 0.04081782186359931 -0.04812808642121008 -0.04993213484673032 -0.0600510544821767 
-0.02373453261543249 0.02418670731179021 -0.01676762715602271 0.02399829332661647 -0.02571955370218518 0.008668329865829952 
-0.06463740613701041 -0.0119470293838971 0.01435366550088632 -0.04521328581543474 0.0004486925556697518 -0.02878772658300951 
-0.06208216839883127 -0.04099226246782648 0.07228319378864544 -0.02763454428213747 -0.05664244780300107 -0.0473663672170517 
-0.0438348679976894 0.02916160948600628 -0.002982986317803787 -0.0191634704378989 -0.02285874545842383 -0.02892282980403312 
0.02259660597111398 0.04545359816949972 -0.02485456789810908 -0.0462697384697019 -0.02586830808639354 -0.05247487542422281 
-0.01752363253934635 0.004451034507899872 0.0109173667771684 -0.02952163515689348 0.03175363308256465 -0.06703915821657279 
-0.06078313327802752 0.06204114341522655 0.001087678497975393 -0.02692055218157381 -0.00674057377834536 -0.05478021586105167 
-0.115796838618046 -0.005486170536323744 -0.005654192223223543 0.00870702374544003 -0.031086175520449 -0.06039821064648784 
-0.06179954723720628 0.06516531667462237 -0.05387959512842007 -0.004872138169187556 -0.01984582950441955 0.00911543630046939 
-0.04486499532245822 0.003771489149309854 -0.02219118261891895 0.03701646273612395 -0.02124566941825803 0.01165246571595979 
-0.03535025527624121 -0.04783269778196447 0.004792703277969422 0.02317402530931379 0.005523174008566487 -0.05307115228014784 
-0.01017603709160125 -0.01506860765874171 -0.0002561329270084754 0.03900798740049864 -0.04461332180030364 -0.04582256372167253 
0.005749550922791416 0.05190324782502332 -0.02685498567220108 -0.01370829027963971 -0.02378933870520248 -0.02628734748327993 
0.04231902435093447 0.02837589250008933 -0.02712146540527462 -0.01979052339517894 -0.06401725395830156 0.01521736722909821 
0.02221205216378743 -0.0166258489451632 0.02041869668925785 -0.03769847850331115 -0.07439523893646034 -0.02844578905028242 
0.001694991099579858 -0.05146452944659311 0.03596522411238436 -0.01753017414350813 -0.05233100889799846 -0.002275410999633413 
-0.07722168313379375 -0.02006340240183197 -0.03750740962234829 0.01232909174103407 0.04352350452395047 0.05648625722401351 
-0.04657070299720352 -0.06461204427545879 0.0217242994496886 -0.0005232672272394922 -0.01640780916991834 -0.03741361873157597 
-0.03892153720283448 -0.01907202759948352 0.01615185770734462 -0.01583245285620839 -0.03718324549325325 -0.07443711008481618 
-0.02542112798218061 0.01191416992904321 -0.02512530022246725 -0.0182921154299306 -0.03894188991876229 0.01627633694370087 
-0.009901788296569432 -0.01111900869990463 -0.05908800240503193 -0.02090429406192096 0.03943885636378041 0.01294170859668668 
-0.02463350414192744 -0.0002258869921923834 -0.02865691773720255 -0.03257420013211174 0.003186711845103174 0.0002470951342832371 
0.09116462245475812 -0.06032094635025604 -0.01497974508901771 0.01888408859688143 -0.05919363501366164 -0.03801792380907862 
-0.0173990184987998 -0.03107872608864349 -0.04227871800778545 0.0673963193779988 -0.04803662398253861 -0.08661607640276373 
0.03945656654543921 -0.04726368125167417 -0.06832843728997322 0.04148049513735984 -0.02080844847172372 -0.02505128775904427 
0.04952705684993576 -0.07561507658554009 -0.01250536542871846 0.05411551029669985 -0.02202757009318877 -0.02186856801162604 
0.01496313494829618 0.0007652820127274062 -0.0250277658742942 -0.00109047313408016 -0.01679589642419545 -0.005478749989894734 
0.03542998410581927 0.04120200739576297 -0.04970337030396591 0.01333975058116062 -0.04851842659117911 -0.001429639367134696 
-0.05262730390496179 0.07279508873964202 -0.03003008352020244 -0.02585787442667234 0.01125829218024601 -0.03458907000745877 
0.03357008348569719 -0.05514908043098878 -0.05201633497675583 -0.02300596602176659 0.02011376779710254 0.02725632545554063 
0.00879899587515983 -0.002529893177165458 -0.009761419858746123 -0.04212509665226556 -0.007884573804045636 0.0392138192894427 
-0.04826177865182622 0.01392952172571777 0.01202894996546115 -0.06030571080950674 -0.01804354400606804 0.007324423218569847 
-0.05571925449667225 0.009643227799316289 -0.01433089406218606 0.008007358630570675 0.01606034147487036 -3.267678375503156e-05 
-0.04180222930399449 -0.03459053638208379 0.00267483988675318 -0.03463419222194043 -0.009324371276259513 0.01449755484968183 
-0.002208464302862806 -0.03646730343036265 -0.05188523275981689 0.04362785614035783 -0.04216202979175051 0.03994549041353233 
0.01077389593691446 0.02832472240325886 -0.02785132530073558 -0.006667662942022284 -0.05541293137010708 0.0347921596319891 
0.04508829116947008 0.03534185278973865 -0.02126863552832616 -0.03252331805573498 -0.06565110997095808 0.03446119557158034 
0.02560120999675264 0.0233643629914858 -0.04338696822350151 -0.002578907316323026 -0.0302815406446598 -0.04246350801456288 
0.06007452616205249 -0.07256218413167487 -0.001692853529948827 -0.03539955998065891 -0.03089724832100445 -0.02263890310155499 
0.04976070770043684 -0.003002769997266964 0.003600152917091493 0.003765937644504632 -0.08674828092653507 -0.01651390011761404 
0.03001689840647186 0.02139777520220294 -0.05400111082040905 0.05089277077546395 -0.05757977339298493 -0.02579737493210747 
-0.05367595774941649 -0.005913072020997929 -0.01996206141465852 0.03031007823681484 -0.07539289075252351 -0.02667687466741675 
0.05465310578444936 -0.01548261787520344 -0.04495893276171323 0.01202409510131513 -0.0252710220870971 -0.0577959126925621 
0.1184781904048288 -0.02411100551995645 -0.05033068106458408 0.01893453341048765 -0.06127248746211351 -0.02509873036339107 
0.03464587138487678 0.0221088961092334 -0.05251594812935394 -0.01347461053672422 0.02888942796875903 -0.07692759709971708 
0.04114708881577588 -0.05807385974798859 -0.01819772680468741 -0.03443511547884771 0.009210599793641373 0.02949244533100219 
-0.01974679939886764 0.01913929870502684 -0.001938878752783964 -0.01235723112219379 -0.03822963674519158 0.04462172521559071 
0.004456055516971153 -0.02549054748646936 0.01467335131812544 -0.02284576041840901 -0.05065450482090098 0.009505173498469575 
-0.03060072171652582 -0.02149083589199067 0.007533367989088218 -0.02035193124440801 -0.0160161893339858 -0.01878103735493895 
-0.02205142553227786 0.005493172334625343 -0.06085762085737523 0.02034649269197424 -0.01177025764057063 0.02291629262502431 
-0.01221847515102382 0.0192744105139587 -0.05629129443942077 0.0002535295176560153 -0.03113332687904705 0.01168784992975587 
0.0348683972183628 -0.006607245590110333 -0.00971884177222484 -0.05941931302589407 -0.01640314640175352 0.0293030713526966 
-0.05066714317591503 -0.01521608135055636 -0.03151595126003912 -0.01962468783402991 0.02662527053341074 0.06200385860992018 
-0.03798710588318904 0.05969577341688579 -0.03608322404299805 0.005152165523798467 0.004864796574018814 -0.07623778843797635 
0.046199401505482 0.006472148260093529 -0.05913595397101266 0.02821216709650224 -0.0315203465826206 -0.03594809142305199 
-0.002220104719005242 -0.03800710086488319 0.03287652629314945 -0.03660383824654681 -0.09601180848938677 -0.09544182983606762 
0.02604943041612126 -0.02657885074050416 -0.05353708542347491 0.03935390892659187 -0.07108459711712911 0.02609585412678822 
-0.04646288100385461 -0.06220169305909736 -0.02243689017683223 0.07416326118943291 -0.06906136464654303 -0.02482233776286628 
0.01940716676359957 -0.06949924676430075 0.01163164150784384 0.01738768094872294 -0.08003752544338023 -0.0687191448867276 
0.06363236919769247 -0.005525661059151392 -0.007148287899541626 -0.01967030643085806 -0.006894772408162207 -0.04192654883072643 
-0.0682393505140203 -0.05659184681549035 0.02913234494608795 -0.04874232455979689 0.04501608589803161 -0.08609050816548885 
-0.01807574513056071 -0.01628327035608803 0.01584551385495857 -0.01268117280901987 -0.08953260580635729 0.04041774058446615 
0.02370592505425174 0.007910549490501656 -0.01476942679649805 0.01276419752337612 -0.0255824395361447 -0.06637671135327342 
-0.00859315077726442 -0.03127972486700963 0.0286971580050757 -0.03818779096460675 -0.08796203847646056 -0.02174088552886696 
-0.01807447614069031 -0.002748886717465958 -0.03288594064880179 0.03997640443837392 -0.0374157251707626 0.02022739522154381 
-0.019383867643483 0.009385178170115045 -0.05371324710202467 0.02911467045086295 -0.04614744150417133 0.06544385556104708 
0.002935123766753159 -0.01877708684136446 0.006207060389397613 -0.003305164986129852 -0.06696927877738908 -0.008664583414428688 
0.04064350571453718 0.04466854973097949 -0.007064909180488839 -0.06199276725243135 -0.06289426776893615 -0.01847112684086637 
-0.01998600064767828 0.0441753086533459 0.0003919094785235053 -0.0886965757563672 -0.03934635010156447 -0.02480475554870012 
0.02576518890570828 0.06241745780985059 -0.02760563859227038 -0.04966061181559503 0.02832514071333399 -0.05654510164145304 
0.05813918775000752 0.03208596557590435 -0.05738200736652931 0.02385564210679394 -0.04522261404213405 -0.006133134806388903 
-0.04116534895541744 -0.09653814285857977 -0.001406255629269567 0.02791089094395354 -0.07809367478760793 -0.07478239423834178 
0.01112453402333471 -0.09141752916553013 -0.02591554107310881 0.04872202863782218 -0.03798438202849573 0.01002761423540021 
0.03281536595811764 -0.06567162088152535 -0.03593193714694646 0.0476560870796847 -0.03578393054047988 0.02511450860457481 
0.06632076891548624 -0.06812780573220416 -0.006813236492124667 0.01877988543267101 -0.03363122511061478 -0.0278711745926406 
0.03322714317791945 0.01366422623500636 -0.002667226036215107 -0.01692446091853416 -0.008145570441364875 -0.02104204169709419 
-0.02591102161745376 0.1159911960995279 -0.003076390058326477 -0.02828005027572743 -0.01180855412724578 -0.01488786773358085 
0.01050940061137614 0.02702926395982738 -0.003149137321405981 -0.04449157910041305 -0.003908830208354956 0.007833314269645873 
-0.01841498740730393 0.0448109444290658 0.01663413147115136 0.01862053920650622 0.0004023432586346858 -0.02287556049958207 
-0.008222635946906245 -0.06362112398226541 0.08227969384951984 -0.04493147490987817 -0.04020126941654393 -0.03343742989804902 
0.04177325120868374 0.03439500953928233 0.00213295695609908 0.01464264519052654 -0.03798884622080437 0.003839524510023374 
-0.003953347254036953 0.02525633711566624 -0.03004357482328271 -0.01109891051180496 0.007943535945151566 0.03668994294086196 
-0.006907655702001184 -0.02430133110015168 0.0275524030343352 0.01201021777295978 -0.002141805448911721 -0.01626347124065286 
0.02039501640031383 0.01736339661308057 0.00469883691422568 -0.01445633978866766 -0.01654105613045078 -0.0262983135342259 
0.03145654798399783 0.04176430359985743 -0.01047735828326925 -0.02684952804032474 -0.001772463931937287 0.02030045624888455 
-0.02658495700336274 0.123187215507314 -0.005484853937082077 -0.02477395370041348 -0.004303468489424189 0.007454852485736014 
-0.01099161839378062 0.01146626294914371 0.000659043830567468 0.02723227195033022 -0.009238202174214425 -0.02668228499887164 
-0.02914218163398455 -0.09249654123434869 -0.001144052893882118 0.08908690395435645 -0.03693066636728715 -0.05529480276009779 
0.02984280846328511 -0.0634366886618071 -0.03766008036807136 0.04904770026996307 0.01695796498522233 0.03005972567409713 
-0.04788633986139988 -0.01502787024814471 -0.05221401104007212 0.05529177437200885 0.00893154957862222 0.05780849834354739 
-0.004296064116886846 -0.03554752779364775 0.01646603820898457 -0.03226126639253776 0.01159788152715216 -0.02957200858359379 
0.07335679626256493 0.02740730380063971 -0.01453890672708403 -0.02733985383095742 -8.000107945442898e-06 0.01419639679361476 
-0.067575361701265 0.04672613693690594 -0.03871713659042116 -0.0113725177456554 0.03386154888737106 0.04623633192908562 
0.002659435550869031 -0.0258077049410168 -0.02276864436856654 -0.009535960860888164 0.03312825448743269 0.05227903122068026 
0.01614714141360023 0.005708222308583806 -0.00246960774865723 0.02400568257195215 0.02958774018691847 0.01095801227935378 
-0.0229427248035713 -0.03521047623493094 0.110145314195099 -0.064573960577444 0.008211325269049666 -0.05775819311349724 
0.01995693914300264 0.0005224185668047023 0.006272011249756284 -0.02296143910976915 0.02180578744285502 -0.02281608519643261 
0.07784791566641565 -0.06863839765761229 -0.001370485259453201 -0.03596524235818082 0.03256213541656974 0.05802757256951812 
0.0008550768185852808 0.003278971702046561 0.01171484313351965 -0.02737107956816056 -0.01274552301842136 0.005663142014100336 
-0.03041164591188122 0.07588446602491036 -0.004665748167559281 -0.01662852478778081 0.006352865599976011 -0.001018316821089286 
0.03085932775588248 0.06434841221273309 -0.007251292612488434 -0.03919077338764805 0.00864750853984445 0.009923462602597024 
-0.06508760149899039 -0.02384997334178366 0.03999229025023184 -0.01983846901563429 -0.02585382577525975 -0.05056430041059042 
-0.01992240622599125 -0.02751964496549443 0.006888509408403813 0.02617254611197054 0.02216254218803012 -0.0008729628977619751 
-0.09138799427987364 -0.05372186824118327 0.03209886942314341 0.001313684001711824 0.003971682332791801 -0.06228900417723662 
-0.03595077952384852 -0.05232330117349162 -0.008995231276036327 0.03038539708872704 0.03278007927991496 -0.02434936136566686 
-0.03766978477201301 -0.02637633926591368 -0.1137092003405572 0.1048232207219115 -0.0005712884948221473 -0.03333436286214866 
-0.03595291338569117 -0.0056061067517599 -0.0478598669712852 0.05678994126324092 -0.01336654383701673 -0.03816714380475102 
0.02159846846136671 0.003542211023579238 -0.01389164451955389 -0.006163136049467776 0.02771809645528409 0.01223556578165376 
-0.04094841468609801 0.02096550855522358 -0.02317906492770905 -0.01378367349574592 0.06770353830807828 -0.03481034339562723 
-0.01961535367195765 -0.04890918804486015 -0.005074126591555855 -0.04971197412213021 0.06324876071664222 0.06883654989436011 
-0.03732521206302658 0.01812255165599963 0.0106411852715678 -0.0008468797206581591 0.001507462890786921 0.0388255855542512 
-0.06422562086874123 -0.0363035327044175 0.05305580911457253 0.009826984018889907 -0.01005512819810647 -0.05773345081470137 
0.06784621280250282 -0.05116563464371576 -0.017190973322449 0.05189346368550065 -0.006610018122301537 -0.05247352334285473 
0.05680927135840987 -0.03330720917788679 -0.008884376263250919 -0.00181233361098266 0.02860060903734633 0.06221221899975388 
0.01163451200711295 0.002792947687872699 0.03263879380694143 -0.03539841140842032 -0.01701790711789446 -0.01209226589345783 
0.0294392067462764 0.05564915346781665 0.006112539525177225 0.001193303007474233 0.009299053004667804 0.02297617235373618 
0.08452259719178008 0.01669455540372728 -0.02215691821854584 -0.0356217742210234 -0.04696117951447493 0.04153871613389315 
-0.01543522998800743 0.1061887755167321 -0.04057992445654539 -0.006758575636922729 0.0002917724577262285 -0.0324397442908277 
0.08082557046049393 -0.007616339769802156 0.001368695814929209 0.006294572504757154 0.006625173311144449 -0.008348372370882214 
0.01286175135251779 -0.02746681627782643 0.007234217817737504 0.06922539250100546 -0.03033966400305502 0.01247697462360979 
0.03610137726364288 -0.03538244247624425 -0.02987321365357249 0.04706832603080539 -0.008455932403968896 0.004452884967689009 
-0.043057841812523 -0.08208817187789377 -0.02456302312377806 0.04760207562739852 0.03258493125307841 -0.0282413199113032 
-0.08342150719741893 -0.06268168837448636 -0.01663300692257641 0.03311159791320609 -0.008228460367321696 -0.01758148987795742 
-0.04685696815441992 -0.009702251486839458 -0.0009692647456099424 -0.01430731228732862 0.02945155016057506 -0.02148321756440653 
-0.1113079435124986 0.05842888791298652 -0.03633830945865238 -0.04167849044749069 0.08744572365870433 -0.02721198035420531 
-0.02222085450748232 -0.01285973574862465 -0.03483669437797578 -0.0157156006806379 0.02595609117599474 0.08895317477887535 
-0.05889079990319975 0.07148874431368379 -0.02087534297558503 0.01521075662539402 0.005852776877327111 -0.02153619942828655 
-0.04923107680676175 -0.06539199161529245 -0.03178759231787483 0.06899743960998755 0.002054084241792888 -0.04500662371582071 
0.00119881017680857 -0.06243451603587172 -0.001070100200208651 0.00159353835363735 -0.004998918004622945 -0.02754105305871179 
0.04281896806875445 -0.06623058099761668 -0.02081631789703475 -0.004613299628022377 0.02834712390757784 0.04541675342025069 
0.02068492824930596 -0.009880339116244995 0.03995297720664982 -0.05228909773845294 -0.004506152904937714 -0.03524741078470047 
-0.02994246584198391 0.06657953812804285 0.01157961852353786 -0.06497546070424431 -0.007187823994223567 0.04823120731587297 
-0.04293986063319858 -0.01432346771781173 0.02493732344635597 -0.043257398805025 -0.004534208921177929 0.0319144510944324 
-0.03121351443949843 0.01264303165701109 -0.01529362190814681 -0.006144390767794624 0.05392036186015569 -0.04019800222925892 
0.0132659381588884 0.02921141644059983 -0.04141773006339128 -0.001278081231731439 0.007912450054871286 -0.005459263780578671 
0.003932348968705355 -0.02662045584248104 -0.006928161183827683 -0.0274783768236255 -0.03620093273646899 -0.01893680060029217 
0.0420793487430202 -0.0640844047804521 -0.03339631812747962 -0.01176983913763694 0.00286716409812209 0.03869570907865538 
0.005677060723529762 -0.1171891090781572 -0.07592364082287101 0.03232420630481935 0.06027327937483806 0.01921697011788603 
0.03279066176339168 -0.02890785002869087 0.006473901459929397 0.006847283093010933 -0.06552852080371872 0.01557331592089198 
-0.02165585147828177 0.01526181377830841 -0.01029830055249933 0.01326873776967037 0.009431324158880513 0.003613952906508299 
-0.05189733437422984 0.06914919351376186 -0.02671067741661361 0.0371205212238969 0.03265170912380319 -0.01764418491886785 
0.0311510289439939 0.05150131112802428 -0.0208443448368691 -0.006343608047915739 -0.03729102203255115 0.04364781545046302 
0.01013910344799808 0.01732864280262343 0.0005549687333509868 -0.009410293168241447 -0.003248584841680452 -0.002644878714115793 
0.02484084143277822 -0.05892676794754459 0.002491607106641201 0.02001609411758692 -0.01447655169867732 -0.003077317377105192 
0.05810949178901284 -0.0716877535828743 -0.05327318893461789 0.02576044675573454 -0.003592263732040669 0.0273001711312146 
0.06396633922097375 -0.07405729197982011 -0.02466439196550906 0.03647462749877858 -0.002463841080205179 -0.0008505519541632541 
-0.01078442006957438 -0.02219844500385707 0.04772342022174075 -0.04621060773116932 0.0006925300804952562 -0.04265671262126586 
-0.01919646760481131 0.07704345850112319 0.01534149962588561 -0.02770628682668821 0.0005584470251655129 -0.04589734371162507 
-0.02502275419503548 0.0642038987967453 -0.01248439583968098 -0.02337699337912889 -0.005808540784989779 0.03210085142592714 
-0.03754757896808041 0.08947861622847288 -0.02609008517446347 -0.06889756910044484 0.01530583011262664 0.01165559923340005 
-0.01899981631661034 0.02568491118556658 0.001096457377337376 -0.009101064642647044 0.001278813027826616 0.0001930879488704881 
-0.02196488520534944 -0.03438252013950203 0.04700802579257759 -0.01342387432819171 -0.02049794894490872 -0.02483736164739549 
0.0008227896117844899 -0.06510170231429721 0.01000838955911877 -0.01156593816913782 -0.001807518643184237 0.08993177604816789 
-0.002676136313477594 -0.06037762103302453 0.005614515394488867 0.02388404855636695 0.001336578433282482 -0.009724639596771636 
-0.06985382523834231 -0.0007212180104994777 -0.006778258551799906 0.08832505780390557 -0.03342283968738329 -0.04835664611163622 
-0.01133622597494902 0.0238815492056198 0.0173559747518816 -0.01824624097740791 -0.03939855687097368 -0.04490566112101713 
-0.04417016809453025 0.1107623846120443 0.0149621376214428 -0.04218673903359282 -0.04782816737373965 -0.02441992089201668 
-0.04065916293455044 0.0004934176280354912 0.03820806860832093 -0.074357193416152 0.02493425188546644 0.04692977123301961 
-0.01106311419283522 0.07058893561249568 -0.009343773974981161 -0.02898293527810916 0.024585001687002 0.00241211407705197 
0.02362084249826232 -0.026156370448254 0.02146543142443464 -0.04940445261062641 0.003553398841592722 -0.01616764023488609 
0.02566937949719344 -0.03217695143422913 -0.01813203845438306 -0.007984579147785732 -0.001138632256460817 0.06541697423156149 
0.03098541661743276 -0.02137235722628785 -0.02656472886311232 0.01681170599811117 -0.005318877147048355 0.01426007808765832 
-0.03036582656060986 0.007237977719757472 -0.001377214867838739 0.0219606937589558 0.006171901331502671 0.02869718607809869 
-0.02654884085126979 0.03785398526404557 -0.003524646644043317 0.006917760801874813 0.03632854388057456 0.004247659525854316 
-0.002552070909532344 0.0130637848145326 -0.006714856831583673 -0.008069375388221297 -0.01918711669887428 -0.01017322769382927 
-0.006687211081943555 0.03010371928163629 0.009918962200418782 0.004002015160367124 -0.02532443690285066 -0.04010247342679509 
-0.01685277978784358 0.01229279141589419 0.009610512061279206 -0.001079480154029795 0.04057419110370783 -0.02185175854768344 
-0.04859449954353087 -0.01442830402724145 0.00973270952612567 0.02485365492826044 0.009870941078083229 0.001474018035532535 
0.01938941893848455 -0.02031224848958039 -0.01906330545911715 0.0274591639250363 0.01325276364220422 0.00470302867799307 
0.01361481445745884 -0.03317220390627195 -0.01053458559217155 0.03586775625732561 -0.01579499707041626 0.03275096338709002 
-0.01386861534284958 -0.01402058472092332 -0.03104723150650677 0.0475898176127274 -0.004485078843312357 0.03015177390071741 
-0.02365447118359962 0.07061913693025657 -0.01661426651181291 -0.01301289446811164 0.004910935457119815 -0.005892769871134059 
0.0175944992512687 0.02771305310171043 0.01650181672841829 -0.009745713942832428 0.005018470082383779 -0.04250282517118045 
